{
  "W": [
    0.3037818838973092,
    0.08232301660089673,
    0.035579880764750126,
    -0.053682197702400423,
    0.054771697153290985,
    -0.013707095559478313,
    0.07502681097069766,
    0.41005452285947686,
    -0.11251546392810216,
    0.241426599284282,
    -0.15728230774688734,
    -0.007225614221258818,
    0.016450074061469335,
    -0.0030881424886270116,
    0.18297362356975486,
    -0.10498354929824656,
    -0.28997005334357406,
    -0.1728326797372108,
    0.08204221790122045,
    -0.10551733145401816,
    -0.045875797819130384,
    0.2832354887801734,
    -0.05484496926487167,
    0.045484709430166616,
    0.0927692558424888,
    -0.03835221074129819,
    0.08570954747636983,
    0.17239791800526924,
    -0.4603988807817472,
    0.3522619958533727,
    -0.04617179468368428,
    -0.15997296892341634,
    0.059538590383710066,
    0.06384502245544012,
    0.16851432557554477,
    0.34195203005218205,
    0.042349422749182214,
    -0.09233191163562708,
    -0.26175081740760453,
    0.11677631175767403,
    0.0019712728712730217,
    0.08994419418177119,
    -0.15100722270722103,
    -0.17899341707749453,
    -0.009331864587433278,
    0.15211759883487094,
    0.022690164430021444,
    0.012907447086118597,
    0.005306714346437758,
    0.13839052464515192,
    -0.2756931652909217,
    -0.023702167386738072,
    0.1387482576473627,
    0.020591636923599346,
    -0.08253175746699828,
    0.03346801079614357,
    0.28419990227809067,
    -0.1948404445920068,
    -0.11443194078552092,
    -0.16003662537002555,
    0.007059246921422588,
    -0.1171985726583643,
    -0.039646507409632395,
    -0.31532108448594165,
    -0.08027834991381554,
    -0.06401982034218877,
    0.04566470804589204,
    0.013716769319977593,
    -0.0015649103873206266,
    0.10849233352807525,
    -0.5448852775541273,
    -0.14048632518995058,
    -0.025380072651263588,
    0.08401085830830987,
    -0.052667458120201883,
    -0.06858954645860314,
    -0.26106713324699143,
    -0.3855931441991928,
    0.09610186238300128,
    0.13775290963877715,
    -0.04112367070296728,
    -0.18701682728038552,
    0.015532590148147648,
    -0.10188659878653036,
    0.11942141090089141,
    0.028415662509582874,
    -0.26685340053895146,
    -0.11239150760839951,
    0.13459902005743918,
    -0.06904056492387985,
    -0.07028418618156797,
    0.1574127682188805,
    0.2673131847369744,
    -0.15203952803942775,
    0.02261392499676615,
    0.11975827691105215,
    0.13507478763760014,
    0.05481145835584471,
    -0.514805287111509,
    0.3610954038405252,
    -0.0023279496602098275,
    -0.19015256629021865,
    -0.0077683184319557175,
    0.06231985628751119,
    0.12147607842359619,
    -0.6321341703529303,
    0.2080142020178894,
    0.11366888924401097,
    -0.0922529130819247,
    -0.10443137988439638,
    -0.005139675775087915,
    -0.14668504735160712,
    0.18229347445177127,
    0.09047493801663879,
    -0.278820803141413,
    -0.09988221980566858,
    0.11608940433999326,
    -0.03553438370953871,
    0.07504466905012941,
    0.5005242134930211,
    -0.10576157967483168,
    0.21547312531018475,
    -0.06160630061610695,
    0.03755365967506475,
    0.040875935523434076,
    -0.03937671504664514,
    0.2669366058119571,
    -0.1597791217963064,
    0.04769299022498463,
    0.1351747010697757,
    -0.10479245822316352,
    -0.02299426928478966,
    -0.031117674810183647,
    -0.0770134549441818,
    0.23771294043109317,
    0.0344695128110633,
    -0.11623869878749206,
    0.12969975920780302,
    0.062090618240590346,
    0.2572276174366763,
    -0.4092725963839714,
    0.11512441757382262,
    0.3973974717839647,
    -0.05743772807959628,
    -0.17150095133423776,
    -0.09220238832014674,
    -0.04121015488180973,
    0.3344493672365868,
    0.07015326283660905,
    -0.07850856468826346,
    0.014630495814697816,
    0.09726828331013485,
    0.019209737679265943,
    0.029555973380854427,
    -0.27930186428786274,
    0.08247270964947821,
    0.3710158814488446,
    -0.06951527545987408,
    -0.1826120232739462,
    -0.03402646459744725,
    0.016624950016252114,
    0.20144668188775658,
    0.16787233060966517,
    -0.024303435440097228,
    0.07579356016787496,
    0.05507645075854489,
    0.08372034885663214,
    0.0820691361833165
  ],
  "W_class": [],
  "b": [
    -9.956103665729202e-16,
    -1.896259241148826e-16,
    -2.0168364062823427e-16,
    -7.460165139288132e-16,
    -2.1182311627838467e-17,
    7.100449507794165e-16,
    -6.926484726674141e-16,
    -8.104322202341506e-16,
    -4.2200975693990533e-16,
    -1.8555186222665046e-16,
    -9.265282769540849e-18,
    -3.5664950303975654e-17,
    -4.610645527236051e-16,
    -1.3384040820615275e-15,
    -9.815708650578757e-17,
    1.547320584009278e-16,
    1.3869257306540689e-15,
    3.2933227049219517e-16,
    6.76593211423084e-16,
    2.343877734093539e-16,
    2.0213012327775485e-16,
    -1.2676798762570224e-15,
    9.339460921712804e-17,
    -1.571260244935763e-16
  ],
  "cols": 24,
  "dim": [
    "approach",
    "arousal",
    "attention",
    "certainty",
    "commitment",
    "control",
    "dominance",
    "effort",
    "fairness",
    "identity",
    "obstruction",
    "safety",
    "upswing",
    "valence"
  ],
  "dim_correlation": [
    [
      1.0,
      -0.0003488921730966376,
      0.00408577920484922,
      0.006091706984922116,
      0.0016643016397566565,
      0.008342889766257272,
      0.0015422862213352506
    ],
    [
      -0.0003488921730966376,
      0.00408577920484922,
      0.006091706984922116,
      0.0016643016397566565,
      0.008342889766257272,
      0.0015422862213352506,
      -0.0003488921730966376
    ],
    [
      0.00408577920484922,
      0.006091706984922116,
      0.0016643016397566565,
      0.008342889766257272,
      0.0015422862213352506,
      -0.0003488921730966376,
      0.9999999999999998
    ],
    [
      0.006091706984922116,
      0.0016643016397566565,
      0.008342889766257272,
      0.0015422862213352506,
      -0.0003488921730966376,
      0.9999999999999998,
      0.005277244708500133
    ],
    [
      0.0016643016397566565,
      0.008342889766257272,
      0.0015422862213352506,
      -0.0003488921730966376,
      0.9999999999999998,
      0.005277244708500133,
      -0.0007889473494226751
    ],
    [
      0.008342889766257272,
      0.0015422862213352506,
      -0.0003488921730966376,
      0.9999999999999998,
      0.005277244708500133,
      -0.0007889473494226751,
      -0.0033287303438472595
    ],
    [
      0.0015422862213352506,
      -0.0003488921730966376,
      0.9999999999999998,
      0.005277244708500133,
      -0.0007889473494226751,
      -0.0033287303438472595,
      -0.0016130154951738845
    ]
  ],
  "emo": [
    "Admiration",
    "Adoration",
    "Appréciation esthétique",
    "Amusement",
    "Anxiété",
    "Émerveillement",
    "Gêne",
    "Ennui",
    "Calme",
    "Confusion",
    "Dégoût",
    "Douleur empathique",
    "Fascination",
    "Excitation",
    "Peur",
    "Horreur",
    "Intérêt",
    "Joie",
    "Nostalgie",
    "Soulagement",
    "Tristesse",
    "Satisfaction",
    "Sympathie",
    "Triomphe"
  ],
  "emotion_correlation": [
    [
      0.9999999999999998,
      0.19261904624996284,
      0.03700051856385335,
      -0.002311539453755812,
      -0.09349860848223426,
      0.34255565305317953,
      -0.1349851232536663,
      -0.05019691570548181,
      0.07203791707500438,
      -0.15875051933133208,
      -0.18731811752372832,
      -0.10744278553919072,
      0.027222664785704846,
      0.19237559571819268,
      -0.14481176036122057,
      -0.2047916784184964,
      0.201477988691133,
      0.25362829804171544,
      0.0434324167436094,
      0.07797711192134077,
      -0.09753681064722969,
      0.30729439497098293,
      -0.019197636518161598,
      0.3927941693241785
    ],
    [
      0.19261904624996284,
      0.03700051856385335,
      -0.002311539453755812,
      -0.09349860848223426,
      0.34255565305317953,
      -0.1349851232536663,
      -0.05019691570548181,
      0.07203791707500438,
      -0.15875051933133208,
      -0.18731811752372832,
      -0.10744278553919072,
      0.027222664785704846,
      0.19237559571819268,
      -0.14481176036122057,
      -0.2047916784184964,
      0.201477988691133,
      0.25362829804171544,
      0.0434324167436094,
      0.07797711192134077,
      -0.09753681064722969,
      0.30729439497098293,
      -0.019197636518161598,
      0.3927941693241785,
      0.19261904624996284
    ],
    [
      0.03700051856385335,
      -0.002311539453755812,
      -0.09349860848223426,
      0.34255565305317953,
      -0.1349851232536663,
      -0.05019691570548181,
      0.07203791707500438,
      -0.15875051933133208,
      -0.18731811752372832,
      -0.10744278553919072,
      0.027222664785704846,
      0.19237559571819268,
      -0.14481176036122057,
      -0.2047916784184964,
      0.201477988691133,
      0.25362829804171544,
      0.0434324167436094,
      0.07797711192134077,
      -0.09753681064722969,
      0.30729439497098293,
      -0.019197636518161598,
      0.3927941693241785,
      0.19261904624996284,
      0.9999999999999998
    ],
    [
      -0.002311539453755812,
      -0.09349860848223426,
      0.34255565305317953,
      -0.1349851232536663,
      -0.05019691570548181,
      0.07203791707500438,
      -0.15875051933133208,
      -0.18731811752372832,
      -0.10744278553919072,
      0.027222664785704846,
      0.19237559571819268,
      -0.14481176036122057,
      -0.2047916784184964,
      0.201477988691133,
      0.25362829804171544,
      0.0434324167436094,
      0.07797711192134077,
      -0.09753681064722969,
      0.30729439497098293,
      -0.019197636518161598,
      0.3927941693241785,
      0.19261904624996284,
      0.9999999999999998,
      -0.10599236081935873
    ],
    [
      -0.09349860848223426,
      0.34255565305317953,
      -0.1349851232536663,
      -0.05019691570548181,
      0.07203791707500438,
      -0.15875051933133208,
      -0.18731811752372832,
      -0.10744278553919072,
      0.027222664785704846,
      0.19237559571819268,
      -0.14481176036122057,
      -0.2047916784184964,
      0.201477988691133,
      0.25362829804171544,
      0.0434324167436094,
      0.07797711192134077,
      -0.09753681064722969,
      0.30729439497098293,
      -0.019197636518161598,
      0.3927941693241785,
      0.19261904624996284,
      0.9999999999999998,
      -0.10599236081935873,
      0.2627923953666714
    ],
    [
      0.34255565305317953,
      -0.1349851232536663,
      -0.05019691570548181,
      0.07203791707500438,
      -0.15875051933133208,
      -0.18731811752372832,
      -0.10744278553919072,
      0.027222664785704846,
      0.19237559571819268,
      -0.14481176036122057,
      -0.2047916784184964,
      0.201477988691133,
      0.25362829804171544,
      0.0434324167436094,
      0.07797711192134077,
      -0.09753681064722969,
      0.30729439497098293,
      -0.019197636518161598,
      0.3927941693241785,
      0.19261904624996284,
      0.9999999999999998,
      -0.10599236081935873,
      0.2627923953666714,
      -0.22468094332313573
    ],
    [
      -0.1349851232536663,
      -0.05019691570548181,
      0.07203791707500438,
      -0.15875051933133208,
      -0.18731811752372832,
      -0.10744278553919072,
      0.027222664785704846,
      0.19237559571819268,
      -0.14481176036122057,
      -0.2047916784184964,
      0.201477988691133,
      0.25362829804171544,
      0.0434324167436094,
      0.07797711192134077,
      -0.09753681064722969,
      0.30729439497098293,
      -0.019197636518161598,
      0.3927941693241785,
      0.19261904624996284,
      0.9999999999999998,
      -0.10599236081935873,
      0.2627923953666714,
      -0.22468094332313573,
      0.38095941016515256
    ],
    [
      -0.05019691570548181,
      0.07203791707500438,
      -0.15875051933133208,
      -0.18731811752372832,
      -0.10744278553919072,
      0.027222664785704846,
      0.19237559571819268,
      -0.14481176036122057,
      -0.2047916784184964,
      0.201477988691133,
      0.25362829804171544,
      0.0434324167436094,
      0.07797711192134077,
      -0.09753681064722969,
      0.30729439497098293,
      -0.019197636518161598,
      0.3927941693241785,
      0.19261904624996284,
      0.9999999999999998,
      -0.10599236081935873,
      0.2627923953666714,
      -0.22468094332313573,
      0.38095941016515256,
      -0.13188481300266122
    ],
    [
      0.07203791707500438,
      -0.15875051933133208,
      -0.18731811752372832,
      -0.10744278553919072,
      0.027222664785704846,
      0.19237559571819268,
      -0.14481176036122057,
      -0.2047916784184964,
      0.201477988691133,
      0.25362829804171544,
      0.0434324167436094,
      0.07797711192134077,
      -0.09753681064722969,
      0.30729439497098293,
      -0.019197636518161598,
      0.3927941693241785,
      0.19261904624996284,
      0.9999999999999998,
      -0.10599236081935873,
      0.2627923953666714,
      -0.22468094332313573,
      0.38095941016515256,
      -0.13188481300266122,
      -0.12827082274298876
    ],
    [
      -0.15875051933133208,
      -0.18731811752372832,
      -0.10744278553919072,
      0.027222664785704846,
      0.19237559571819268,
      -0.14481176036122057,
      -0.2047916784184964,
      0.201477988691133,
      0.25362829804171544,
      0.0434324167436094,
      0.07797711192134077,
      -0.09753681064722969,
      0.30729439497098293,
      -0.019197636518161598,
      0.3927941693241785,
      0.19261904624996284,
      0.9999999999999998,
      -0.10599236081935873,
      0.2627923953666714,
      -0.22468094332313573,
      0.38095941016515256,
      -0.13188481300266122,
      -0.12827082274298876,
      0.10886108632610295
    ],
    [
      -0.18731811752372832,
      -0.10744278553919072,
      0.027222664785704846,
      0.19237559571819268,
      -0.14481176036122057,
      -0.2047916784184964,
      0.201477988691133,
      0.25362829804171544,
      0.0434324167436094,
      0.07797711192134077,
      -0.09753681064722969,
      0.30729439497098293,
      -0.019197636518161598,
      0.3927941693241785,
      0.19261904624996284,
      0.9999999999999998,
      -0.10599236081935873,
      0.2627923953666714,
      -0.22468094332313573,
      0.38095941016515256,
      -0.13188481300266122,
      -0.12827082274298876,
      0.10886108632610295,
      -0.19027260275023014
    ],
    [
      -0.10744278553919072,
      0.027222664785704846,
      0.19237559571819268,
      -0.14481176036122057,
      -0.2047916784184964,
      0.201477988691133,
      0.25362829804171544,
      0.0434324167436094,
      0.07797711192134077,
      -0.09753681064722969,
      0.30729439497098293,
      -0.019197636518161598,
      0.3927941693241785,
      0.19261904624996284,
      0.9999999999999998,
      -0.10599236081935873,
      0.2627923953666714,
      -0.22468094332313573,
      0.38095941016515256,
      -0.13188481300266122,
      -0.12827082274298876,
      0.10886108632610295,
      -0.19027260275023014,
      -0.19455604600679843
    ],
    [
      0.027222664785704846,
      0.19237559571819268,
      -0.14481176036122057,
      -0.2047916784184964,
      0.201477988691133,
      0.25362829804171544,
      0.0434324167436094,
      0.07797711192134077,
      -0.09753681064722969,
      0.30729439497098293,
      -0.019197636518161598,
      0.3927941693241785,
      0.19261904624996284,
      0.9999999999999998,
      -0.10599236081935873,
      0.2627923953666714,
      -0.22468094332313573,
      0.38095941016515256,
      -0.13188481300266122,
      -0.12827082274298876,
      0.10886108632610295,
      -0.19027260275023014,
      -0.19455604600679843,
      -0.13133736477423164
    ],
    [
      0.19237559571819268,
      -0.14481176036122057,
      -0.2047916784184964,
      0.201477988691133,
      0.25362829804171544,
      0.0434324167436094,
      0.07797711192134077,
      -0.09753681064722969,
      0.30729439497098293,
      -0.019197636518161598,
      0.3927941693241785,
      0.19261904624996284,
      0.9999999999999998,
      -0.10599236081935873,
      0.2627923953666714,
      -0.22468094332313573,
      0.38095941016515256,
      -0.13188481300266122,
      -0.12827082274298876,
      0.10886108632610295,
      -0.19027260275023014,
      -0.19455604600679843,
      -0.13133736477423164,
      -0.11138387381993836
    ],
    [
      -0.14481176036122057,
      -0.2047916784184964,
      0.201477988691133,
      0.25362829804171544,
      0.0434324167436094,
      0.07797711192134077,
      -0.09753681064722969,
      0.30729439497098293,
      -0.019197636518161598,
      0.3927941693241785,
      0.19261904624996284,
      0.9999999999999998,
      -0.10599236081935873,
      0.2627923953666714,
      -0.22468094332313573,
      0.38095941016515256,
      -0.13188481300266122,
      -0.12827082274298876,
      0.10886108632610295,
      -0.19027260275023014,
      -0.19455604600679843,
      -0.13133736477423164,
      -0.11138387381993836,
      -0.08545574813030994
    ],
    [
      -0.2047916784184964,
      0.201477988691133,
      0.25362829804171544,
      0.0434324167436094,
      0.07797711192134077,
      -0.09753681064722969,
      0.30729439497098293,
      -0.019197636518161598,
      0.3927941693241785,
      0.19261904624996284,
      0.9999999999999998,
      -0.10599236081935873,
      0.2627923953666714,
      -0.22468094332313573,
      0.38095941016515256,
      -0.13188481300266122,
      -0.12827082274298876,
      0.10886108632610295,
      -0.19027260275023014,
      -0.19455604600679843,
      -0.13133736477423164,
      -0.11138387381993836,
      -0.08545574813030994,
      -0.21679263207382654
    ],
    [
      0.201477988691133,
      0.25362829804171544,
      0.0434324167436094,
      0.07797711192134077,
      -0.09753681064722969,
      0.30729439497098293,
      -0.019197636518161598,
      0.3927941693241785,
      0.19261904624996284,
      0.9999999999999998,
      -0.10599236081935873,
      0.2627923953666714,
      -0.22468094332313573,
      0.38095941016515256,
      -0.13188481300266122,
      -0.12827082274298876,
      0.10886108632610295,
      -0.19027260275023014,
      -0.19455604600679843,
      -0.13133736477423164,
      -0.11138387381993836,
      -0.08545574813030994,
      -0.21679263207382654,
      -0.2145008159079212
    ],
    [
      0.25362829804171544,
      0.0434324167436094,
      0.07797711192134077,
      -0.09753681064722969,
      0.30729439497098293,
      -0.019197636518161598,
      0.3927941693241785,
      0.19261904624996284,
      0.9999999999999998,
      -0.10599236081935873,
      0.2627923953666714,
      -0.22468094332313573,
      0.38095941016515256,
      -0.13188481300266122,
      -0.12827082274298876,
      0.10886108632610295,
      -0.19027260275023014,
      -0.19455604600679843,
      -0.13133736477423164,
      -0.11138387381993836,
      -0.08545574813030994,
      -0.21679263207382654,
      -0.2145008159079212,
      -0.10763037826066366
    ],
    [
      0.0434324167436094,
      0.07797711192134077,
      -0.09753681064722969,
      0.30729439497098293,
      -0.019197636518161598,
      0.3927941693241785,
      0.19261904624996284,
      0.9999999999999998,
      -0.10599236081935873,
      0.2627923953666714,
      -0.22468094332313573,
      0.38095941016515256,
      -0.13188481300266122,
      -0.12827082274298876,
      0.10886108632610295,
      -0.19027260275023014,
      -0.19455604600679843,
      -0.13133736477423164,
      -0.11138387381993836,
      -0.08545574813030994,
      -0.21679263207382654,
      -0.2145008159079212,
      -0.10763037826066366,
      0.5908611627276369
    ],
    [
      0.07797711192134077,
      -0.09753681064722969,
      0.30729439497098293,
      -0.019197636518161598,
      0.3927941693241785,
      0.19261904624996284,
      0.9999999999999998,
      -0.10599236081935873,
      0.2627923953666714,
      -0.22468094332313573,
      0.38095941016515256,
      -0.13188481300266122,
      -0.12827082274298876,
      0.10886108632610295,
      -0.19027260275023014,
      -0.19455604600679843,
      -0.13133736477423164,
      -0.11138387381993836,
      -0.08545574813030994,
      -0.21679263207382654,
      -0.2145008159079212,
      -0.10763037826066366,
      0.5908611627276369,
      -0.021951702966020583
    ],
    [
      -0.09753681064722969,
      0.30729439497098293,
      -0.019197636518161598,
      0.3927941693241785,
      0.19261904624996284,
      0.9999999999999998,
      -0.10599236081935873,
      0.2627923953666714,
      -0.22468094332313573,
      0.38095941016515256,
      -0.13188481300266122,
      -0.12827082274298876,
      0.10886108632610295,
      -0.19027260275023014,
      -0.19455604600679843,
      -0.13133736477423164,
      -0.11138387381993836,
      -0.08545574813030994,
      -0.21679263207382654,
      -0.2145008159079212,
      -0.10763037826066366,
      0.5908611627276369,
      -0.021951702966020583,
      -0.03223842309398574
    ],
    [
      0.30729439497098293,
      -0.019197636518161598,
      0.3927941693241785,
      0.19261904624996284,
      0.9999999999999998,
      -0.10599236081935873,
      0.2627923953666714,
      -0.22468094332313573,
      0.38095941016515256,
      -0.13188481300266122,
      -0.12827082274298876,
      0.10886108632610295,
      -0.19027260275023014,
      -0.19455604600679843,
      -0.13133736477423164,
      -0.11138387381993836,
      -0.08545574813030994,
      -0.21679263207382654,
      -0.2145008159079212,
      -0.10763037826066366,
      0.5908611627276369,
      -0.021951702966020583,
      -0.03223842309398574,
      -0.09001119762528172
    ],
    [
      -0.019197636518161598,
      0.3927941693241785,
      0.19261904624996284,
      0.9999999999999998,
      -0.10599236081935873,
      0.2627923953666714,
      -0.22468094332313573,
      0.38095941016515256,
      -0.13188481300266122,
      -0.12827082274298876,
      0.10886108632610295,
      -0.19027260275023014,
      -0.19455604600679843,
      -0.13133736477423164,
      -0.11138387381993836,
      -0.08545574813030994,
      -0.21679263207382654,
      -0.2145008159079212,
      -0.10763037826066366,
      0.5908611627276369,
      -0.021951702966020583,
      -0.03223842309398574,
      -0.09001119762528172,
      0.0825903390453957
    ],
    [
      0.3927941693241785,
      0.19261904624996284,
      0.9999999999999998,
      -0.10599236081935873,
      0.2627923953666714,
      -0.22468094332313573,
      0.38095941016515256,
      -0.13188481300266122,
      -0.12827082274298876,
      0.10886108632610295,
      -0.19027260275023014,
      -0.19455604600679843,
      -0.13133736477423164,
      -0.11138387381993836,
      -0.08545574813030994,
      -0.21679263207382654,
      -0.2145008159079212,
      -0.10763037826066366,
      0.5908611627276369,
      -0.021951702966020583,
      -0.03223842309398574,
      -0.09001119762528172,
      0.0825903390453957,
      0.03354336981672348
    ]
  ],
  "emotion_frequencies": [
    0.3333984375,
    0.308984375,
    0.279296875,
    0.4201171875,
    0.3375,
    0.3474609375,
    0.29609375,
    0.36953125,
    0.2732421875,
    0.3623046875,
    0.237109375,
    0.23046875,
    0.2765625,
    0.37265625,
    0.2921875,
    0.2818359375,
    0.3513671875,
    0.3416015625,
    0.3017578125,
    0.1970703125,
    0.2720703125,
    0.3640625,
    0.30703125,
    0.22734375
  ],
  "emotion_weights": [
    1.0000000000000002,
    1.0000000000000002,
    1.0000000000000002,
    1.0000000000000002,
    1.0000000000000002,
    1.0000000000000002,
    1.0000000000000002,
    1.0000000000000002,
    1.0000000000000002,
    1.0000000000000002,
    1.0000000000000002,
    1.0000000000000002,
    1.0000000000000002,
    1.0000000000000002,
    1.0000000000000002,
    1.0000000000000002,
    1.0000000000000002,
    1.0000000000000002,
    1.0000000000000002,
    1.0000000000000002,
    1.0000000000000002,
    1.0000000000000002,
    1.0000000000000002,
    1.0000000000000002
  ],
  "mse_global": 0.8078363839077238,
  "mse_per_emotion": [
    0.820252315857712,
    0.7758425381809666,
    0.9903958997808836,
    0.8819490989306833,
    0.6981751724645552,
    0.8311623775282988,
    0.9167763293594174,
    0.8807086375772307,
    0.7813301972599977,
    0.9486213314553835,
    0.5835780550366837,
    0.5032575761333146,
    1.0223502941551434,
    0.9179853583877289,
    0.6258329751321888,
    0.41431279071725247,
    0.9326690195120094,
    0.631296294543209,
    0.8888263269084217,
    1.1657793228645261,
    0.492444409162343,
    1.0210775556333855,
    0.686385604003914,
    0.9770637332001455
  ],
  "pca_components": [
    [
      0.32538030823702563,
      0.08306438462385643,
      0.12980415410237972,
      0.2957158778279923,
      0.21415390470539952,
      0.31680412002897307,
      0.17043452013050797
    ],
    [
      0.08306438462385643,
      0.12980415410237972,
      0.2957158778279923,
      0.21415390470539952,
      0.31680412002897307,
      0.17043452013050797,
      -0.2917591550902492
    ],
    [
      0.12980415410237972,
      0.2957158778279923,
      0.21415390470539952,
      0.31680412002897307,
      0.17043452013050797,
      -0.2917591550902492,
      0.31221059284654795
    ],
    [
      0.2957158778279923,
      0.21415390470539952,
      0.31680412002897307,
      0.17043452013050797,
      -0.2917591550902492,
      0.31221059284654795,
      0.24929411757032635
    ],
    [
      0.21415390470539952,
      0.31680412002897307,
      0.17043452013050797,
      -0.2917591550902492,
      0.31221059284654795,
      0.24929411757032635,
      -0.25200745687277376
    ],
    [
      0.31680412002897307,
      0.17043452013050797,
      -0.2917591550902492,
      0.31221059284654795,
      0.24929411757032635,
      -0.25200745687277376,
      0.31252385234656177
    ],
    [
      0.17043452013050797,
      -0.2917591550902492,
      0.31221059284654795,
      0.24929411757032635,
      -0.25200745687277376,
      0.31252385234656177,
      0.3022033517248484
    ],
    [
      -0.2917591550902492,
      0.31221059284654795,
      0.24929411757032635,
      -0.25200745687277376,
      0.31252385234656177,
      0.3022033517248484,
      0.33227111649723534
    ],
    [
      0.31221059284654795,
      0.24929411757032635,
      -0.25200745687277376,
      0.31252385234656177,
      0.3022033517248484,
      0.33227111649723534,
      -0.08366096408251224
    ],
    [
      0.24929411757032635,
      -0.25200745687277376,
      0.31252385234656177,
      0.3022033517248484,
      0.33227111649723534,
      -0.08366096408251224,
      0.6351422454583083
    ],
    [
      -0.25200745687277376,
      0.31252385234656177,
      0.3022033517248484,
      0.33227111649723534,
      -0.08366096408251224,
      0.6351422454583083,
      0.5704063978121063
    ],
    [
      0.31252385234656177,
      0.3022033517248484,
      0.33227111649723534,
      -0.08366096408251224,
      0.6351422454583083,
      0.5704063978121063,
      -0.02059868544588581
    ],
    [
      0.3022033517248484,
      0.33227111649723534,
      -0.08366096408251224,
      0.6351422454583083,
      0.5704063978121063,
      -0.02059868544588581,
      0.20940642938321197
    ],
    [
      0.33227111649723534,
      -0.08366096408251224,
      0.6351422454583083,
      0.5704063978121063,
      -0.02059868544588581,
      0.20940642938321197,
      -0.17203121412050157
    ]
  ],
  "pca_explained_variance": [
    0.5768475568416016,
    0.12584782467635303,
    0.06621195326818403,
    0.051892637656817946,
    0.036664401257408254,
    0.02645499832614908,
    0.025336183287766604
  ],
  "pca_mean": [
    -2.2965745747642083e-16,
    6.745784590247436e-15,
    -8.470680942697707e-15,
    2.6535491571133825e-15,
    -4.7531267712845864e-15,
    -1.3170050583333586e-15,
    -4.2233036851114265e-15,
    -1.5427547077204462e-15,
    6.86797271700294e-16,
    -4.685037938798819e-16,
    4.4078047611404707e-16,
    -1.0396244162188084e-15,
    -1.3948086879044146e-15,
    1.1315685046602873e-15
  ],
  "poly_degree": 1,
  "poly_dim": [
    "PC1",
    "PC2",
    "PC3",
    "PC4",
    "PC5",
    "PC6",
    "PC7"
  ],
  "r2_global": 0.22020679939109866,
  "r2_per_emotion": [
    0.1219942249637187,
    0.2989682908610507,
    0.14621005318799252,
    0.1147361040876308,
    0.42942922482638257,
    0.23503927990463047,
    0.07754679766491201,
    0.1184331437012327,
    0.1529155520699237,
    0.11186502841251078,
    0.3934839160491628,
    0.29640651018702313,
    0.08840612561577765,
    0.14579910058192846,
    0.44429458261128796,
    0.5219173649196439,
    0.14177766272224068,
    0.38759214237062534,
    0.140085012145043,
    0.15874378614981377,
    0.39362227375432157,
    0.12108087267566503,
    0.2537489360532862,
    0.09139079421715479
  ],
  "rare_emotion_indices": [
    10,
    11,
    19,
    23
  ],
  "residual_means": [
    0.04983716986730309,
    0.016554860580362183,
    -0.040399639579351505,
    0.015820725389356707,
    -0.06160209522057582,
    -0.0332938466034914,
    0.022095597080107336,
    0.005644742871117386,
    0.009694852904778,
    -0.02038239033284057,
    -0.00968326214296959,
    0.05248221091886675,
    -0.010460798322426646,
    -0.01707503935358476,
    -0.02321603977781374,
    0.00200608735859612,
    -0.059242786488036187,
    0.032131421844071,
    -0.013757392502530276,
    -0.04553448408181476,
    0.02227023603956557,
    -0.011557434366727739,
    0.03418775338258013,
    -0.015576232534414924
  ],
  "residual_stds": [
    0.904305574657886,
    0.8806636558710323,
    0.9943660135497095,
    0.9389881807450178,
    0.8332948783767904,
    0.9110729374241353,
    0.9572293946328073,
    0.9384438046335806,
    0.8838756739989806,
    0.9737586403312188,
    0.7638614334229437,
    0.7074625033670561,
    1.0110592790996977,
    0.9579633612089778,
    0.7907553291816778,
    0.643668211371947,
    0.9639291010033584,
    0.7938915960466437,
    0.9426754802475521,
    1.0787520260115064,
    0.7013903661650087,
    1.0104177261629201,
    0.8277782320903146,
    0.9883426097159731
  ],
  "rows": 7,
  "x_mean": [
    0.4799005279911326,
    0.5757020608377301,
    0.60397841907489,
    0.51341078126633,
    0.5157811279283987,
    0.5504753601280721,
    0.4684331995677449,
    0.34004481074050447,
    0.5205357867929107,
    0.47227114006099513,
    0.3623773351000312,
    0.4925435275713876,
    0.5426797229485437,
    0.5243084716367079
  ],
  "x_std": [
    0.17930846795598285,
    0.08198899084695915,
    0.0741811261759242,
    0.10100822204669084,
    0.10614070185489245,
    0.17021866574475933,
    0.07134719318358063,
    0.12171543139175313,
    0.13102775773354713,
    0.10680478832884258,
    0.09104999431387993,
    0.15909943700287144,
    0.14827757733108934,
    0.17930527364558718
  ],
  "y_mean": [
    0.041020760121070365,
    0.059648367987697924,
    0.05972085826693516,
    0.2130715100801593,
    0.06218259240752353,
    0.09540588682108013,
    0.03332917264395395,
    0.048139157151507996,
    0.03688407899369801,
    0.05791178069240682,
    0.08580107167962567,
    0.030898733272875588,
    0.03276416520797862,
    0.047943566324737466,
    0.0730660965986222,
    0.06461019374440119,
    0.09633584480886079,
    0.09037598162951917,
    0.0716852851608388,
    0.02164555024666936,
    0.056084445968520066,
    0.03976074659566703,
    0.038781383721319444,
    0.025012072642199422
  ],
  "y_std": [
    0.06689697211828526,
    0.10592310909074776,
    0.12030344064768901,
    0.20426088783605578,
    0.1047800882979674,
    0.11807147591289854,
    0.06765775160747695,
    0.0734526402888919,
    0.08075816310759822,
    0.09032379562438436,
    0.17328299821374576,
    0.07620135285751264,
    0.06722700989818847,
    0.07155671455838283,
    0.13242691568660225,
    0.12621125487134827,
    0.10557821356382371,
    0.11895944451650815,
    0.14508405785000197,
    0.05895100761347323,
    0.11860681454043288,
    0.058937248217150816,
    0.07090488651603302,
    0.06139456653069293
  ]
}